
/**
 * Copyright 2021 Huawei Technologies Co., Ltd
 *
 * Licensed under the Apache License, Version 2.0 (the "License");
 * you may not use this file except in compliance with the License.
 * You may obtain a copy of the License at
 *
 * http://www.apache.org/licenses/LICENSE-2.0
 *
 * Unless required by applicable law or agreed to in writing, software
 * distributed under the License is distributed on an "AS IS" BASIS,
 * WITHOUT WARRANTIES OR CONDITIONS OF ANY KIND, either express or implied.
 * See the License for the specific language governing permissions and
 * limitations under the License.
 */

#include "weight.h"

int  g_thread_num = 1; 
unsigned char * g_Buffer = 0; 
const int8_t g_Weight1[] = {
-34, 127, 112, -4, -17, 69, -9, -127, 94, 41, -78, -56, 11, -127, -106, 93, 127, 50, 85, 80, -57, 127, 109, -127, 43, 1, -60, -6, 20, 19, -53, 52, 8, -1, -85, 127, -127, -92, 47, 34, 16, 127, 9, 117, 66, 
-127, -2, 27, 68, 102, -48, 121, 125, 127, -57, -127, -113, 45, 80, 127, 74, 77, 39, 43, 127, 105, -12, 33, 101, -115, -121, -127, 127, 75, -5, 19, 57, -126, -26, -127, -75, 68, 110, 127, 80, 69, 98, -108, -119, -127, 
10, -55, -127, 99, 14, -4, 119, 127, 97, -67, -111, 59, 25, 127, 114, 38, -127, -79, 
};

const int32_t g_Weight2[] = {
-2099, -922, -314, -1140, -534, -559, -154, 509, 9591, 1598, -177, -3398, 
};

const int8_t g_Weight3[] = {
25, 101, 86, 39, 62, 80, 76, 3, -61, 31, 46, 51, 43, 39, 50, 1, 36, 28, 60, 74, 64, 57, 27, 59, 53, 18, 18, -10, -20, 13, -34, 30, 27, 61, 4, 2, 48, 91, 39, 63, -5, 45, -6, 61, -120, 
18, 40, 34, 42, 127, 43, 42, 54, 54, 88, 51, -127, 23, 74, 15, 22, 67, 48, 40, 66, 18, 73, 31, -54, -18, 68, 7, 68, 61, 31, 0, 9, 36, 19, 94, -94, 71, 27, 58, 28, 25, 42, 68, 34, -1, 
42, 108, -51, 114, 52, 35, 76, 86, 10, 30, 23, 6, 78, 72, -47, 86, 51, 65, 78, 51, 35, 48, 22, 16, 16, 54, -30, 77, 2, 31, 53, 93, 50, 64, 40, 73, 24, -4, -101, -38, 66, 58, -2, 127, 62, 
4, 1, 10, 42, -25, -26, 6, 37, 8, 47, 14, -26, -9, 23, 8, 24, 68, 11, 38, -4, -16, 89, 37, 39, 62, 8, 25, 24, 72, -127, 69, 0, 17, 25, 110, 77, 11, -16, 58, 69, 8, -124, -61, 119, 15, 
-25, -1, -41, -23, 7, -10, -30, 17, 20, 18, -81, -31, 77, -16, -9, -4, 10, 22, -28, 43, -31, 49, -19, -1, 47, 69, 73, 59, 16, 38, 0, 72, -106, 17, 85, 42, 52, 18, 64, 7, -21, 65, -37, 8, -71, 
3, 46, 14, -42, 44, 7, 6, 24, 22, 64, -12, 3, 4, 27, 32, -13, 4, -43, -23, 30, 18, 98, -16, -4, 29, 19, 8, -15, -49, -8, -7, -74, -51, -101, 127, 28, 10, -117, -46, 20, 19, -13, -36, -12, -21, 
43, 37, -37, 21, -30, 6, -23, -87, -11, -35, -14, -2, 19, 73, 38, 89, -76, 34, -67, -13, -124, -118, -52, -102, -42, 9, -58, -33, -46, -123, -9, -37, -73, -99, -112, -99, -65, 83, -58, -6, -91, -75, -54, -47, -67, 
-83, -89, -104, -11, -19, 33, -12, -127, -62, 10, -82, 9, 26, 66, 35, -86, -45, -35, 29, -34, 7, 39, 41, 64, 89, 96, 44, 4, -115, -36, -127, 47, 75, 75, 12, 126, 56, 34, 12, 22, -49, 64, 20, -20, 72, 
4, -69, -64, 20, 10, -31, -59, -90, -81, -88, -94, 20, 95, 19, 55, 63, 26, 83, -41, -122, -80, -38, 10, 78, -1, 104, 82, 4, -45, 43, -58, -62, -26, -79, 62, 34, 65, -45, 1, 9, 43, 37, -83, -42, -50, 
-92, -35, 27, 91, 98, 100, 19, 34, 11, -13, 44, -96, -29, -7, 55, 5, 91, -4, 37, 7, 75, 114, 52, -73, 20, 127, 41, 39, -5, 127, 65, -6, 47, -91, -42, 32, -27, 36, 55, -69, 12, 34, -6, -73, -43, 
-64, -72, 10, 9, -64, -23, -71, -115, -48, -88, 59, -37, 66, -76, -1, -21, -49, -26, -24, 49, 103, 47, -76, 84, -90, -125, -17, -127, -11, 79, -31, 8, -2, -60, -21, -72, -27, -24, 68, -20, 9, -48, -62, -21, -117, 
-31, -47, -76, -23, -19, 2, 33, -92, -23, 56, 72, 9, 46, 13, 26, -64, -72, -68, -52, 63, 65, -5, 33, 7, -67, -28, -10, 15, 0, 12, 12, 83, -29, -46, -39, -14, 12, -27, 25, -52, -30, -28, -1, -2, -60, 
4, 25, 34, 45, 73, 10, 76, 25, 34, 108, 16, 45, 31, 77, -31, 6, 68, 8, 53, -80, -43, -26, 47, 32, 66, 76, 92, 72, 109, 66, 99, -119, -50, -82, 63, 127, 102, 24, 77, 44, 71, 56, 64, -24, 73, 
-14, 94, 101, 59, -27, 63, 52, 80, 106, 7, -33, 48, -7, 34, 69, 77, 48, 51, 40, 68, 94, 1, -16, -22, -87, 65, 33, 30, -12, 62, 62, 89, 70, 67, 8, 49, 49, 39, 64, 72, -56, 38, 108, -9, 16, 
37, -40, -46, 17, -14, 99, 53, 25, 36, 108, -15, 52, 41, 104, -127, 11, 98, 83, -47, -5, -77, -43, 44, -7, 11, -71, -38, -127, 28, 3, 3, -9, -43, -18, -18, 21, 41, -1, -20, -18, -16, -2, -5, 55, 6, 
-10, 46, 43, 99, -11, -52, -28, 40, 42, 32, -24, 19, 12, 42, 20, 81, 40, -50, -9, 37, 63, 39, -1, -8, 35, 29, -26, 81, -33, -35, -11, -10, 36, 43, 12, 19, -5, 14, 32, 80, 67, -58, -2, -32, 58, 
12, -54, -8, 14, -24, -55, -84, 28, -28, 33, -62, -55, -61, -43, -25, 5, -77, -75, -64, 62, 15, 57, -60, -34, -25, -10, -53, -44, -49, -95, -39, 127, 39, 113, -114, 12, 70, -19, -24, 33, 61, 55, -9, -102, 35, 
-52, -3, 20, 28, 97, 64, 34, 103, 68, 13, -32, -45, -6, 43, 108, -8, 49, 97, 78, -22, 14, -46, 34, 42, 4, 73, 61, 60, -47, -1, 78, 83, 64, 13, -123, -58, -127, -6, 19, 91, 11, 80, 109, 45, 83, 
-32, -41, 52, -30, 46, 72, -40, 15, 113, 9, -95, -32, -79, 5, 113, -3, 18, -42, 81, -49, 98, 65, 94, 99, -43, -85, 6, -79, 1, 68, 50, -27, 109, 65, -44, 68, -92, -90, 83, -36, -22, 46, -87, 6, 13, 
-10, -111, -53, -76, -110, 127, -16, -31, -73, 14, -6, 19, -6, 3, 5, -78, 7, -57, 20, -36, 7, -46, 3, 1, -56, -43, -48, -52, 26, -96, 19, -48, -21, -11, 58, -28, -8, -31, 16, 6, -59, -106, -97, 43, -20, 
0, 27, -16, -12, 6, 28, 10, -12, -127, -48, -4, 15, -28, 69, -72, -41, 42, 35, 64, 12, -92, 17, 31, 40, 24, 11, -28, -5, -23, 24, 59, 90, -40, 56, -19, -12, -34, 14, 18, -27, 6, -15, 106, 57, -63, 
74, 11, 40, -2, -49, 28, -21, -43, -37, 80, 102, -47, 127, -88, 21, 18, 43, 10, -42, -54, -31, 43, 108, -41, 99, -73, 2, 41, 44, 8, 37, 14, 44, -17, 31, 0, 60, 63, 36, 41, 73, 36, 12, 24, 47, 
27, -20, -49, -41, 22, 30, 45, 12, 73, 4, -12, 7, 23, -6, 14, 14, -4, 34, 49, 54, -6, 26, 38, -3, 4, 33, -10, 69, 28, 21, 65, 85, 24, 36, 15, 58, -27, 15, -94, 11, 63, 60, -14, 76, 64, 
32, -38, -1, 1, -29, -36, -82, 65, 17, 5, 16, 7, -18, 43, 14, 11, 44, 56, 63, 21, 25, 83, -13, 38, 33, 7, 29, -40, 76, -63, 77, -15, 45, 50, 127, 43, 54, 45, 23, 64, 26, -127, 23, 120, 13, 
9, -104, -6, -36, -86, -60, -101, -33, -17, 18, -105, -39, -42, -74, -48, -24, 9, -44, -46, -41, -31, 11, -57, -3, -4, -56, -13, 44, 14, 45, -20, 28, 20, -8, -16, 36, -85, 24, -69, -96, -64, -88, -15, 73, -6, 
27, -43, -112, -9, -21, -104, -83, -85, -83, -72, 127, -11, 63, -65, -74, -14, -74, -37, -38, -60, -79, -127, 93, 19, 95, -113, -37, 9, 20, -52, -11, 8, 42, 59, -77, -38, -1, 30, -10, -16, 48, -71, -29, -17, 38, 
34, 7, -14, -58, 32, -27, -74, 45, -79, -55, -57, -25, -1, -59, -31, -108, 46, -56, 29, -40, -24, 0, 48, -8, -6, 74, 58, 121, -68, -14, -27, -30, 20, -34, -87, -96, -43, 14, 54, 18, -127, -62, -20, -72, -76, 
-58, -33, -23, -122, -46, -20, -46, -88, -33, -109, 56, -15, -36, 14, -33, 41, 27, 34, 4, 33, -44, -79, -7, -69, -81, -53, -43, 26, -25, -26, 47, 51, -83, -6, 53, -48, -58, -6, 1, 29, 33, 46, -89, 24, -16, 
18, 15, 14, 7, 105, 90, 58, 43, -45, 56, 113, 59, 76, 23, 62, 8, 24, 73, 37, 127, -118, 89, 81, 94, 31, 33, -29, 14, 80, 70, 73, 44, -102, 57, 127, 55, 
};

const int32_t g_Weight4[] = {
-2310, -1291, -1028, -928, 817, -413, -884, -203, -3754, -1009, 361, -1573, 
};

const int8_t g_Weight6[] = {
-13, -40, -42, 13, -47, -44, 2, -30, 0, -65, -34, -51, -1, -96, 26, -16, -31, -27, -2, -26, 35, -20, -48, 34, 20, -52, -14, -72, 0, 31, 30, -6, 12, -27, -14, 45, -8, -3, -16, 24, 53, 15, -25, -33, 51, 
59, 39, -1, -2, 59, -3, -60, 51, 1, -27, 17, 29, 15, 16, -53, -22, -24, -6, -75, -50, -28, -4, 57, 44, -74, -37, 10, -58, -36, -18, -54, -69, -13, 59, -42, 28, -39, -13, -8, 24, 52, -57, -40, -80, 40, 
31, -68, -17, 71, -44, 50, 46, -33, -5, 7, -3, -15, -53, -23, -30, -30, -11, 20, 7, 77, 4, -37, -25, -64, -100, 4, -4, -19, 5, 2, 23, 7, 34, -17, 30, -38, 10, 36, 19, -20, 22, -20, 57, 34, 44, 
17, 77, -16, -34, -60, -38, -1, 36, 11, 65, 9, 10, -29, -56, 30, 22, -61, 7, 52, -18, 16, 57, 13, -96, -40, 5, 20, 20, 64, 44, 11, 17, 63, -15, -39, -40, -4, -15, 23, 17, 5, -1, -23, -101, -15, 
-2, 37, -26, -10, -11, -12, -6, -31, -50, 1, -45, 5, -13, 2, -36, 31, -70, -16, 34, 21, 16, 12, -127, -52, 2, 11, 62, 48, -23, -5, 27, 57, 58, 32, -94, -53, 10, -2, -9, 15, 21, 9, -2, -5, -4, 
20, -18, -23, 11, 37, -27, -26, -5, -4, -4, 0, -45, 12, 3, 27, -46, -20, 31, 23, 16, 2, 27, -36, 30, 2, -26, -38, 45, 11, 36, 3, 0, 34, 31, -17, 1, 31, -17, 10, 17, 36, 12, 34, -12, 11, 
9, -49, 1, -14, -19, 6, 49, -7, 50, -26, 28, 13, 5, -33, 5, 32, -23, 4, 36, 98, -20, 13, -20, 44, -3, -31, 40, 85, 51, 127, -17, 4, 9, 7, 11, -27, 42, 3, 22, -6, 33, 12, -26, 20, 26, 
-6, 29, -1, -13, 51, -1, -5, -28, -1, -51, 11, -3, 5, 44, 4, -24, 44, -37, 33, -65, 7, 28, 75, 7, 54, 14, -23, -35, -3, -9, 1, -30, -13, 8, 57, 27, 15, -4, -23, -14, 5, 5, 42, -6, 5, 
-11, -12, 14, -12, 54, 24, -9, 16, -24, 19, 71, 32, 15, -17, 4, 30, 72, 24, -5, 21, -1, 8, 20, 71, -24, -9, 9, -20, 59, -13, -17, 28, -10, 25, -41, 24, 4, 44, 10, 41, 45, 18, 21, 2, -8, 
27, -5, 16, 4, 90, -8, 36, 30, 21, -50, 0, -23, 76, 18, 8, -2, 4, -5, 18, -7, 39, -4, 78, 33, 20, -22, 7, 4, 2, -20, 5, -3, 20, 0, 101, 26, -40, -42, 29, -33, -45, 18, -29, 52, -32, 
4, 14, 5, -17, 4, 30, -10, -16, -40, 25, 5, -23, -41, 43, 4, 13, 15, 17, 38, 61, -77, 71, -20, 52, 44, 41, 3, 15, -41, -1, -10, -19, 13, 33, -35, 34, -14, 103, 6, 29, -70, -47, 15, 8, 1, 
68, 20, 54, -6, 99, 4, 26, -127, -37, -18, -5, -35, 54, 25, 59, 32, 103, 35, -3, -79, 22, -14, -11, -11, 30, 49, 16, 49, 29, 47, -42, 12, 11, -26, -16, 127, -6, 30, 39, 96, 28, 47, -1, 51, 50, 
-20, -19, -24, 2, -16, 0, 35, 46, 38, -4, -22, -20, -20, 5, 5, 53, 68, -3, 42, 67, 1, 10, -56, -69, 39, 55, 60, 67, 80, 10, 33, -24, -3, 56, 9, -64, 81, 69, 53, 49, 16, -4, 7, -27, 17, 
43, 36, 12, 51, 47, 44, -34, -7, 34, 51, -37, 39, -1, 126, 73, -47, -31, -20, -39, -12, -19, -56, -2, -41, -8, -20, -15, -33, -37, -28, -39, -22, -30, 22, -115, 55, -10, -12, 18, 29, -18, -34, -45, -11, -3, 
22, -10, 62, -6, 61, 44, 76, 12, -8, -6, 17, 5, 45, -19, 41, 72, 72, 66, 51, 3, -6, -49, 33, -1, -55, -41, -5, 48, 8, 50, 32, 18, 20, 0, 44, 42, 13, 16, 3, -32, 26, 34, 16, -29, 48, 
6, -23, 33, 66, -41, 17, 17, 22, -5, 49, 101, -8, 7, -52, 16, 64, -59, 53, 52, -13, 47, 27, 57, -19, 13, -43, -8, 35, 1, 57, 11, -17, -25, 51, 127, -63, 41, 12, 21, -29, 4, 4, 94, 26, -25, 
-1, 33, -18, 12, -1, -25, 18, 26, 7, 10, 0, -24, 15, 2, 7, 27, -8, -16, -38, -13, -10, 38, -27, 6, -37, 51, -31, -1, -52, 2, -15, -36, -1, 37, -50, -37, -21, 18, 28, 4, -16, -26, 36, 40, 16, 
-5, -127, -49, -33, 38, 4, 15, 9, -2, 23, 12, 9, 1, -52, -44, -78, -13, -26, -28, 21, -56, -22, -13, -61, -20, 0, -42, -7, -8, -4, 14, 37, -17, -31, 35, 19, -1, -72, -4, -5, -1, -29, 14, 8, 16, 
-21, 26, -27, 2, -20, -51, 0, -20, -7, -38, 9, 4, -42, -3, 0, -17, 16, 28, -25, 13, 19, -32, -7, -54, -28, 22, -42, -35, -7, -22, 15, 36, 12, 80, 5, 5, -29, 12, -6, 82, -29, 14, 47, 11, 6, 
31, 45, -29, 24, 49, -11, -17, -8, -6, 18, 42, -6, 20, 52, -14, -11, 5, -3, 57, -5, 35, 5, -11, 2, -4, 40, 6, -30, 13, -6, -34, -18, 30, -24, -54, -42, -15, 33, 13, -45, 34, -25, -21, -7, -61, 
-58, -83, -58, -37, -23, -8, 13, -16, -13, -13, -26, 6, -17, -71, 30, 3, -31, -21, 16, -31, 1, -28, -33, 3, 29, -106, 67, -74, 1, -28, 47, 1, 53, 40, 61, 32, 15, 2, 50, 1, -66, -32, 66, -80, 80, 
28, 31, 84, -7, -55, 127, -46, 51, -10, -4, -95, -38, -32, -7, -35, -1, 25, -14, 34, 43, 53, 31, -5, 42, 14, 2, 8, 38, 23, -22, 52, -71, 56, 12, 38, -29, -31, 32, 17, 12, 52, -15, 53, -99, -13, 
50, -68, -6, 80, -8, 8, 10, 16, 93, 5, -70, -73, 26, -50, 40, 3, 118, -30, 31, 31, 68, 7, -4, -27, -34, -98, -46, -35, 98, 71, 20, 19, 2, 8, 29, -17, 24, -84, 57, 15, 89, -4, -23, 8, 39, 
45, -44, -51, -28, -65, 38, 11, 79, 2, -4, 70, -25, 6, 0, -35, -9, -26, 6, 69, -29, 45, 6, 44, -59, 10, -7, 35, -29, -26, 57, -39, -30, -2, -31, -64, -46, 14, -18, -42, -53, 1, -21, -30, -43, -12, 
-77, 16, -46, -5, 22, 15, -10, -40, 18, -73, -26, -44, 23, 4, 43, -3, -114, -37, -5, -30, 27, -39, -46, 35, 40, 5, -40, -12, -36, 32, -15, 29, 34, -15, -127, -15, -51, 8, -43, 17, 33, 36, -65, 42, -53, 
27, -62, -54, -67, 43, 3, -38, 46, -25, -5, -35, 23, 26, 21, -15, -71, -27, -28, 34, -8, 9, 72, 39, 22, 33, -57, -8, 14, 41, 3, 51, 9, -6, 6, 8, 10, -32, -3, -14, 83, -25, 51, 33, -6, 24, 
13, -26, 43, -27, -57, 53, 37, 17, 52, -20, -20, 28, -14, -25, 0, -19, -10, 32, -8, 65, 23, -24, 15, 20, 6, -52, -30, -20, 116, 118, -1, -2, 9, -11, -5, -15, 22, 3, 25, 22, 1, -22, -36, -12, 20, 
-26, 8, -8, 1, 17, 1, -56, -25, 25, -71, -54, -29, 4, -31, -52, -39, 3, -11, 12, -97, -46, -32, -16, 52, -3, -19, -39, 23, -17, 5, -26, -17, 3, -27, -27, 127, -49, -32, -77, 41, -63, 1, -74, -22, -59, 
-44, -5, -42, 33, -39, -40, -35, 1, -43, 23, -41, -15, -25, 43, -26, 68, 25, 24, 4, 27, -31, 86, -65, -32, -11, -60, -15, -16, 68, -46, -71, 2, -17, -12, 0, -34, -7, -35, 32, -41, -33, -45, -16, -86, -41, 
-9, -23, -25, -5, -14, 10, -83, 12, -87, -7, -63, -14, -5, 31, 77, 5, 92, 10, -23, -8, 29, 29, -78, 42, 22, -48, 52, 64, 32, 44, 20, 30, 8, 17, -52, 6, 33, -15, -33, 36, 20, -18, -27, 83, -23, 
-55, -9, -9, 0, -1, 94, 21, -56, -68, -39, -1, -29, 20, 34, -33, 15, 55, 60, 34, -25, -10, -26, 16, -49, -52, -8, 15, 1, -65, -13, -52, -14, -12, -43, -106, 9, -10, -1, -2, -63, -82, -37, 33, -61, -34, 
5, -6, -17, -14, 45, 36, -7, -127, -17, 44, -38, 48, 13, 1, 36, -12, 2, -14, -23, -117, -1, -47, 11, 30, 9, 22, 62, 3, -22, 4, -1, -93, -104, 15, 21, 106, -60, -27, 13, 53, -65, -10, -37, 51, 72, 
-51, -58, 2, -4, -73, 10, 17, 42, -60, -4, 4, -44, 1, 23, 4, 19, 13, 18, -18, 2, -52, -51, -66, -49, -18, 14, 2, 32, -20, 0, 22, -74, 9, -25, -61, -30, -18, 41, 20, 12, -29, 0, -16, -25, -1, 
19, -35, -7, 28, 48, -22, 3, -42, 45, 40, -36, -18, 13, 87, 86, -69, 18, 22, -12, 11, -23, -23, 1, 3, -61, -55, 12, 56, 11, 60, 36, -77, 14, 50, -103, 87, 38, 16, 11, 60, -35, 80, -45, -23, 11, 
76, -104, 81, -15, 85, 59, 8, -19, 46, -4, -33, 5, 77, -127, 74, 33, 95, 70, 10, -63, -16, -58, -20, -13, -58, -92, -34, 32, 39, 2, 30, -54, 7, -59, -18, -43, 41, -11, 59, -50, -23, -13, -17, -72, 81, 
8, -115, 35, 67, -37, 38, -71, 72, 9, -7, 4, 84, -65, -99, -8, 47, -48, 4, -60, 36, -6, 71, 19, 126, -15, -5, -6, 48, -35, 47, 1, 79, 14, 51, 64, 6, -11, 12, -9, -50, -55, 17, 45, 57, -20, 
-17, -13, -14, 14, 48, -1, 0, -11, 19, -13, 60, -32, -41, -12, 13, -31, -28, -47, -52, -46, -6, -39, 127, 4, -89, -48, -20, -54, -61, -70, 7, -59, 12, -85, 41, -31, -36, -13, 4, 22, -23, -31, -4, -42, -43, 
-25, 37, -32, -42, 26, -58, 50, -40, 35, -81, 5, -33, 39, 43, -66, 10, -26, -23, -31, 53, -34, -69, -4, -25, -5, -74, -42, 13, 10, 20, -61, -2, 8, 19, -99, 3, -27, 78, -33, -12, -91, -21, -76, -4, 10, 
-32, -73, -18, -36, 56, 9, -85, -19, -48, -19, -29, -27, -44, 8, -84, -6, -22, 10, -37, -61, -45, 39, 3, 36, -29, 31, 11, -37, -19, -73, 5, 13, 38, -50, -51, -17, 26, 68, -25, -69, 3, 15, -4, 10, 46, 
-33, -51, 21, -38, -20, -35, -39, 55, 24, -37, 1, 21, -35, -66, -22, 48, -8, -3, -74, 50, -13, -60, -39, 2, 3, -38, 15, -52, -9, -46, -11, 93, 53, -39, 30, 14, -27, -10, 58, 1, -2, -26, 16, 15, 48, 
16, 1, 14, -15, -5, -40, -30, 44, 15, -50, -53, -25, 21, -73, 94, 37, -81, 24, -18, -95, -26, 24, 42, 6, 56, -18, 104, -1, 28, -26, 85, -45, 77, 5, 1, -7, 2, 19, 5, 39, -5, -1, 62, -67, 33, 
-3, -23, -29, 25, -38, 7, -56, -10, -38, -9, -60, -75, -34, 5, -21, 23, -83, 35, -74, -11, -66, 6, -33, 42, -104, 35, 18, -84, -82, 61, -56, -99, -25, 78, -2, 15, -58, 69, -31, -4, -20, 41, -36, -86, -60, 
23, -64, 18, -2, 36, 14, 21, -4, 32, -55, -50, -54, 44, -4, -4, 14, 102, 1, -49, -60, -50, -20, 17, -26, -101, 0, -56, -28, 15, -11, -2, -50, 30, -90, 25, -34, -28, -14, -42, -52, 127, -14, -84, -80, -44, 
-104, -85, -79, 3, -36, -67, -73, 103, -16, -10, -83, -11, -23, -91, 29, -36, -44, 15, -39, -75, 44, 24, 1, 29, -86, -27, -12, 47, -2, 28, -27, -1, 34, -11, -43, 28, -84, 7, -41, -15, 19, -28, -27, 41, 87, 
12, -37, -53, -27, 40, -4, -26, -11, -48, 5, -40, 10, -25, -21, -76, -27, -57, -7, -34, -72, -28, -47, 43, 1, 7, 25, -32, 2, -66, 51, -2, -1, 32, 6, -20, -34, 20, 31, -8, -23, -14, 24, -29, -59, 10, 
15, 3, -15, -17, -38, -24, -30, -37, 14, -32, -27, -4, -40, -57, -26, 6, 3, -37, -35, -21, 25, 12, -31, -23, -52, -8, 47, 43, -27, -27, 40, -53, 61, -27, -107, -34, 27, 38, -23, -6, -35, -39, -39, -127, 7, 
-18, -71, -6, -50, 6, -20, -20, -24, -31, -38, -92, 64, -18, -20, 37, -21, -13, 10, 34, -3, 27, 23, 14, -4, 34, 27, 33, 38, 34, 47, -13, -21, 27, 14, -27, 34, -16, 28, 52, -46, -61, -4, -14, -98, -29, 
-48, -6, -16, -7, 18, 40, -83, -34, 21, 13, -51, -26, -24, -7, -10, 72, -55, 66, -5, -22, 9, 19, -45, -31, -24, -35, 61, 69, -26, 18, 42, -10, 45, 13, -20, 71, -16, 89, 17, 16, -7, 0, -3, 55, 25, 
-36, -9, 2, 38, -33, 21, 28, 102, 53, -4, -66, 25, -31, 21, -7, -35, 2, 0, 17, 54, -17, 1, -36, -11, 71, 4, -48, -12, -85, -29, -37, 7, 32, -9, -30, -10, -4, -16, 16, -68, -65, -27, 29, -38, 44, 
-20, 24, 48, -12, 70, 65, -38, -12, -14, -4, -22, 48, 68, 44, 34, -41, 28, -16, 77, 32, 32, 18, 51, -35, 72, -23, -56, 32, 60, -70, 69, 83, 47, -7, -12, -14, 89, -85, -32, 41, 54, -55, 45, -5, 52, 
25, -1, 29, 21, -72, -72, 57, -14, 13, -66, 17, 27, 48, -29, 86, 15, 53, 22, 24, 10, 46, -40, -44, 10, 30, 17, 51, 30, -29, 48, -23, -3, -8, 6, -3, 13, -49, -29, -45, 56, 16, -20, -11, 127, -31, 
43, -41, 10, 34, 44, 17, 8, -34, -48, 50, -16, 24, 42, -35, -28, 7, 17, 17, 23, -72, -76, 5, 47, -3, -64, -40, 30, 5, -52, -9, 51, 32, 23, -20, 95, -40, 18, -20, -14, -31, 46, -56, 18, -90, -100, 
73, 61, -44, 91, 39, 21, -15, -127, -11, 70, -10, -65, 33, 56, 24, 44, -20, 15, 53, -104, 13, 79, 49, -53, 94, 21, 18, 16, -32, -1, 25, -40, 26, 24, -45, 42, -43, -106, -9, 2, -16, 4, 47, 83, 47, 
-5, -53, 18, -54, -83, -5, 24, 15, 11, -56, 16, -45, -44, -61, -120, 26, 28, 20, 38, 17, 24, -3, 48, 14, 45, -22, 42, 26, -5, -26, -21, -6, 1, 28, 26, 20, -19, -12, 8, -29, -19, -17, -45, -3, 5, 
39, -17, -31, 0, 1, -1, -34, -69, -64, -22, -58, 30, 20, -7, -3, -5, 41, 72, 11, -98, -5, 15, 2, 26, 14, 4, 9, 37, 54, -19, 50, 24, 6, -1, 35, -7, -35, 73, 9, 23, 15, -31, 45, -48, -2, 
26, 49, -4, -9, 68, 2, 33, -32, 55, 5, -44, 46, -10, -23, 34, 34, 48, 52, -64, -54, 71, -11, 24, 52, 44, 1, 35, 53, 4, 57, 1, 72, 19, 3, 35, 26, -20, 20, 41, 46, -37, 44, 57, 126, 60, 
-36, 18, -10, 93, -28, 27, 10, 91, 8, 38, -54, -61, -48, -6, 2, 86, 95, 55, -29, 80, -32, 48, -42, -26, -50, -29, 39, 39, -45, -18, 54, 21, 5, -17, -17, -30, 53, 8, -1, 57, 36, 70, 35, 2, 35, 
9, 71, -15, 54, 108, -62, 25, -22, 74, 5, 7, 15, 4, 31, 32, -3, 45, -29, 2, 11, 27, -9, 54, 3, 13, 34, -24, 66, 9, 47, 38, 127, 21, 12, -38, -23, 80, 64, 14, 6, 13, 1, -25, 40, -36, 
2, -38, -27, -34, 62, 71, -25, -26, -45, 18, -20, 9, 15, 62, 36, -3, -80, -11, 18, 19, -9, 26, 10, -11, -28, 90, -12, -29, -64, -127, -5, -2, -29, -94, 41, -10, -92, -57, -73, -61, 59, 20, -37, -4, 19, 
-41, -15, -14, -40, 15, 17, -12, 79, 56, -80, 23, -22, -37, 51, 5, -19, 59, -50, 16, 7, -7, -39, 18, 44, 60, 31, -17, 19, 38, -46, -31, 43, -30, -40, -62, -4, -9, 6, -7, -33, -18, -59, -56, -20, -87, 
65, 64, 49, -47, 33, 65, 27, -90, 18, -34, -42, -25, 26, -67, -53, -46, -6, 42, 41, -1, 48, -43, -76, 26, -21, -41, -32, 28, 8, -3, 9, 10, 24, 24, 8, 67, 29, -56, 76, 58, 32, 45, 27, -16, 34, 
36, 55, 25, -6, 33, 5, 4, 82, 52, 22, 34, 60, 62, -2, 0, -13, 39, -38, 57, 4, -44, -9, 98, 62, -3, -113, -10, -15, -14, -35, 61, 64, 37, 28, 27, 31, 47, -127, 39, 53, 18, -90, 80, -27, -7, 
19, -6, -25, 88, -86, 26, 67, 34, -48, -4, 11, -4, -13, -4, 41, 66, -60, -13, 16, 51, 45, 54, 61, -17, -18, 17, 14, 37, -16, 7, -35, 53, -18, 62, 8, 47, 19, 54, 30, 72, -122, -31, 123, 91, 32, 
72, 98, 94, 36, 1, 54, 117, -78, -95, 127, 46, 74, 100, 117, -20, 76, 36, 18, 9, 56, -30, -17, 2, -96, -36, 45, 69, 27, 1, 16, 18, 56, -23, -16, 58, -22, 54, 34, 28, -21, 64, 6, 22, -87, -70, 
39, 52, 43, 96, -46, 98, 35, 27, -9, 98, 20, -26, 78, 21, 1, 118, 34, 35, 6, -48, 37, 41, 5, -6, 33, 8, 104, -30, 19, -54, 16, 8, 33, -4, 38, -4, -36, -12, 45, 14, -24, 42, -2, 31, 43, 
-16, 23, 7, -5, 24, 6, 50, 15, -36, 20, 29, 23, 82, -18, -80, 36, 70, 40, 6, 51, 19, 74, 14, -11, 74, 1, -55, 22, 99, 38, 5, -44, -8, 11, 0, 51, 24, 86, 46, 65, -35, 96, -21, 3, -15, 
80, 93, 47, -8, 60, 97, -6, -18, 48, 51, 72, 14, -9, 30, -4, 16, 72, 60, 0, 99, -26, 6, -15, 36, 34, -24, 77, 71, 31, 16, 39, -10, 43, 20, 28, -28, -15, 6, 49, 32, 26, 39, 3, -15, 84, 
-23, -25, 10, 41, -50, 8, 58, 71, 34, 78, 80, 58, 34, 43, 45, 26, -7, -3, 81, 78, 30, 1, 40, -44, 23, 82, 29, 13, 3, 23, 27, 68, 10, 35, 75, -125, -41, -8, -2, -38, 45, -43, 50, -13, -5, 
75, -6, 24, -51, -26, 15, 85, -11, 41, -65, 17, -17, 29, -2, 47, -40, -54, 35, 49, -38, 56, -14, 43, 11, -27, -57, 29, -35, -33, 28, 51, -22, 7, 11, 1, 4, -16, 83, -20, 41, 52, 23, 3, 26, -10, 
45, -58, -16, 51, 37, -37, 20, 33, -21, -46, 80, -9, 15, -37, -27, -5, -24, 29, -74, 13, 1, -24, 25, -20, -67, 74, -3, -22, -62, 37, -16, -31, 45, 60, 25, 34, -24, 69, 16, 9, -53, 9, -5, -36, 36, 
76, -57, 16, -60, -3, 28, 22, 18, 28, 28, 12, 26, 66, 40, -15, 23, -39, 10, 57, 42, 49, 54, 72, 24, -26, 84, -22, 29, -4, 21, 44, -3, 1, 1, 81, -17, 24, -10, -2, 33, 7, 20, 69, -17, 40, 
-21, 20, -13, 9, -127, 11, 43, 127, 46, 40, 8, 67, -43, 7, -33, 37, -40, 9, -38, 111, 46, -48, 14, 19, 39, -49, 60, -10, 0, -2, 11, 10, 45, 9, 6, 12, 78, 23, 46, 5, 27, 58, 30, 13, -11, 
29, 0, 7, -14, 16, 8, 9, 48, -31, -5, 65, 36, 13, -52, 44, -16, -35, -41, -39, 42, 23, -25, 51, 69, -45, 20, 24, -28, -17, 25, 7, 40, -12, -17, 7, 19, -12, 65, 27, 37, 41, 31, -17, 37, 2, 
64, -12, 35, -20, 10, 3, 12, -23, 17, -10, -5, -6, 47, 36, -14, 17, 15, -7, 66, 0, 38, 29, 18, -36, 22, 5, 8, 30, 0, 30, 19, 42, -14, 14, 73, -1, 35, 80, 58, -16, 48, -18, -11, 6, -22, 
46, 27, 4, -67, 35, -33, -9, -19, -6, -25, -39, -14, -18, 29, -3, -11, -35, -51, -21, 58, 32, 33, 34, 69, 23, 76, -12, 8, 18, 34, 28, 63, 38, 37, -30, 39, 67, -32, -4, -5, 77, -31, 68, 31, 9, 
-18, -39, -3, -11, -77, -25, -29, 61, 3, -19, -3, -10, -22, 69, 10, -13, -20, 19, 30, 61, -5, -1, 5, -39, -37, -41, 19, -12, 19, 30, -64, -19, 53, -16, -51, 8, 40, 2, 5, 78, 116, 67, -64, -94, -15, 
14, -27, 46, -59, 78, -17, -20, -95, 18, -6, 116, 23, -44, 13, 32, 9, -51, -45, -33, -41, -15, 15, 88, 2, -2, 99, -21, 8, -33, 64, -5, -24, -46, 88, 72, 17, 48, -36, 59, -28, 19, -30, 63, 21, 80, 
14, -83, 6, -18, -35, 127, -44, -8, -60, 83, 0, 7, -16, -24, 65, 17, -60, -15, -64, 76, -10, 13, -45, -27, -65, 44, 95, -59, -57, 25, -72, -69, 10, 20, 32, -22, -35, 87, -3, 31, 45, -24, 22, -14, 56, 
63, -17, -12, 55, -37, -52, 79, 29, 37, -55, 29, -34, 15, -56, 55, 22, 78, 14, 28, 47, 11, -55, 12, -52, 0, -52, -46, 39, 68, 61, 23, 26, 13, 72, 5, 68, 20, -40, -13, 16, -15, -1, 64, -15, 31, 
57, 9, -10, -38, -12, -13, -40, 36, -30, -24, 15, -64, 22, -22, -15, 5, -66, 34, -4, -44, -14, 9, 10, -70, -6, -7, -13, -15, 60, -6, 38, -113, -43, 9, -31, -73, 6, 55, -14, -5, 54, 0, 12, -127, -38, 
84, -3, 47, 109, 24, 44, 60, 104, -11, 32, 4, 36, -3, 39, 121, 27, 50, 34, -46, 37, -6, -19, 24, -62, -15, 41, 2, 23, 23, -3, 8, 20, -21, -27, -28, -91, -26, 122, -47, 4, 43, -22, -19, 19, -53, 
-12, -9, -14, 30, 97, -24, 10, -8, -20, -21, -4, -2, 41, -51, -61, 5, -29, 67, -53, 58, -42, 13, 9, -32, -56, 56, 3, -23, -94, 56, -75, -48, -60, 3, -19, 45, -56, 127, 53, -69, -24, -28, -40, -30, -24, 
-28, 32, 28, -57, 2, 74, -49, -14, -71, 50, 5, -12, -10, 43, -63, 3, -17, 84, -38, 3, -58, 38, 39, -15, -84, 49, -36, 13, -9, -14, -44, -76, -17, -35, 37, -15, -36, 95, -74, -86, -9, 30, -121, -85, -17, 
-55, 5, -61, 10, -33, -28, -127, -15, 58, -40, -23, -72, 0, -26, 11, -1, 5, -24, -7, -58, 13, 21, -77, -20, -75, 14, -24, -57, -10, 21, -2, -8, 36, -39, -45, 3, -29, -34, -5, -11, -43, 47, -34, 13, 22, 
12, 6, -54, -23, 58, -24, -11, 71, 24, -1, -83, 8, -38, -32, -64, 2, -21, 69, -5, 69, -59, -34, -34, 17, 8, 64, -54, 41, -41, 24, -22, 27, 0, 21, -33, -76, 97, -32, 0, -23, -25, -11, 8, -3, 47, 
41, 18, -8, -21, -39, 13, -32, -39, 38, 16, 42, 55, -16, -25, 109, 29, 2, -15, 57, 23, 15, 31, 15, 39, 60, -54, 40, -18, 52, 7, 111, -9, 56, 13, -16, 16, 88, -20, -88, 19, 8, 47, 37, -44, -6, 
44, -81, 25, 25, 48, 3, 20, -35, 53, -11, -34, 60, 20, -17, 84, 11, 2, -20, 38, -47, 32, -61, -21, -20, 29, -24, 3, -61, 87, 25, 103, 27, 18, 26, 35, 38, 54, -12, 81, -24, 43, 18, 29, 44, 81, 
51, -42, 85, 11, 6, 8, 58, 79, 37, 63, 64, 39, 56, 31, 24, 61, 34, -26, 43, 51, -31, 49, 121, 59, 65, 70, 52, -31, 50, 27, 52, 40, -25, 31, 88, -51, 52, 66, -12, -54, 36, 42, 54, -13, 48, 
-19, 6, 43, 9, -21, 23, 7, 1, 33, -78, 93, 47, -3, -12, 14, 32, -67, 44, 85, 7, 64, -72, 67, 51, 51, 67, -32, -9, -52, 42, 75, 59, 22, 70, 47, -8, 45, 127, 7, 23, 42, 76, -10, -12, -36, 
34, -113, -51, 1, 50, -100, 34, 49, 37, 4, 46, 11, 33, -127, -43, -33, -65, 14, -36, -9, 20, 41, 30, 9, -4, 66, 96, 30, 31, -6, -7, -24, -12, 17, -29, 47, -40, 48, 44, -40, 35, -52, 26, 6, -16, 
26, 31, 29, 31, 72, -81, -30, 2, 43, 18, -90, -7, -46, -10, -23, 6, -30, 17, 35, 18, 94, 7, 23, -24, 55, 0, 48, 51, -40, -2, 39, -3, 69, 34, 55, 59, 62, 49, 43, 33, -28, 99, 49, 17, -50, 
22, -24, 34, 0, -3, -19, -4, 31, -11, 17, 40, -24, -16, 15, -53, -56, -10, -15, 20, 82, 36, 59, 41, -32, -9, -38, 0, 14, 36, 8, 72, 49, 106, 44, 55, 44, -15, -19, 59, 55, 62, -9, 35, 38, 79, 
54, -6, 75, 14, 11, 72, 46, 53, 81, 53, -8, -1, 8, 17, -12, 72, 59, 55, 35, -14, 63, 47, 22, 20, 74, -1, 0, 0, 20, -37, 0, 10, 35, 39, 54, 88, 44, -53, 11, -39, -67, 55, 11, 1, 12, 
-4, -32, 69, 73, -55, 102, 39, -19, 63, 33, 80, 22, -22, 52, -6, 26, -50, 32, 37, -22, -5, 53, -59, 48, -16, 55, 35, -24, -103, 60, -55, 8, -59, 63, -37, 73, -41, -63, -7, 45, 53, -58, 52, -20, -11, 
-38, 38, -7, 21, 1, 39, -13, 82, -85, -43, 62, 1, -30, 88, 2, 63, 11, -17, 30, 80, -78, 59, 55, 8, 10, -2, 8, 26, 7, -9, -40, -47, 12, 17, -12, 18, -6, 96, 13, -18, -33, 75, -31, -40, -23, 
-21, 5, -62, -22, 41, 20, 25, -72, 82, -50, 56, -46, 53, -40, -54, -43, 49, -54, -4, -124, 47, -65, 38, -70, 81, 20, 45, -85, 79, 19, -8, -85, 7, -3, 48, -91, 79, 77, -30, -23, 123, -1, 69, -115, -27, 
34, 36, -18, 70, 44, 8, -7, 46, 31, 55, -90, -10, 34, 70, 19, 49, 120, 84, -2, 88, 46, 16, 26, -40, 52, 48, 3, 15, -23, 73, 87, -36, 27, 68, 13, 30, 22, 39, -127, 25, 70, 46, 82, 101, 68, 
-35, -95, 2, 37, -31, -22, 74, 99, 63, 95, 62, 68, 28, -46, -67, -5, 49, 44, 72, 34, 25, 5, 24, 59, -1, 15, 13, 127, -2, 6, 69, 102, -7, 26, -20, 11, 81, 8, -27, 30, 4, 112, 25, -46, 1, 
29, -12, 81, -49, 57, -3, -37, 3, 63, 1, 94, 33, 5, 53, 14, 18, -28, -20, 19, -17, -1, -19, 50, -25, -10, 19, 13, -13, 18, -28, -16, -30, 16, 2, 95, -70, -68, -74, -5, -42, 1, 64, -26, 28, 16, 
-14, -18, -66, -11, 24, 31, -59, 15, 93, -39, -19, -21, 10, 1, -53, -43, 26, -42, 8, -35, -64, -7, 80, -16, 50, 59, 27, 45, -29, -10, 30, -5, -21, 26, 96, 11, 28, 11, -16, -29, -59, -17, 69, 14, 43, 
6, 2, -50, 12, 17, 3, -9, 10, -31, 13, -58, 1, 27, -15, -75, 52, 23, -48, -26, 11, 36, -4, -24, -8, -25, -48, -50, 35, 8, 49, 9, 40, 24, -2, -27, 19, 37, -63, 58, 14, 17, -11, 23, 20, 16, 
-41, 18, 13, 20, -119, 76, 26, -22, 29, 64, 4, 6, -35, 9, -14, -43, 13, -68, 32, -31, -23, -62, 53, -2, 15, -39, -21, -31, 16, -20, 18, 38, 7, 5, -17, -20, 26, -27, -22, -32, 38, 37, 9, -12, 65, 
28, 20, -10, 7, 0, 40, 27, -59, 21, 4, -14, 6, 45, 26, 26, -13, 127, 25, 8, -47, 99, -36, -14, 13, 44, -46, 6, -30, 75, 39, -6, 34, -26, 28, 55, 20, -27, -43, -40, 55, 20, -22, -13, -8, 17, 
4, 19, -11, -26, -11, -2, 16, -12, 10, -23, 36, 2, 51, 0, 40, 52, 20, 38, 31, -36, -33, 6, 10, 11, 1, 67, -1, 11, 41, -19, 13, 54, -95, -12, -7, 13, -40, -51, -15, -44, -62, -27, 17, 10, -69, 
-13, -11, 39, -17, 20, 7, -21, -57, -55, 14, 63, 38, 31, -1, 34, -5, 23, -17, -36, -66, 15, 5, 100, 69, -31, 6, 5, 37, -29, 0, 17, 0, -39, 13, 98, -10, -23, 6, 57, 66, 19, -23, -24, 4, -40, 
26, 43, 1, 9, 24, -127, 15, -29, -54, -72, -2, -46, 43, 21, -12, 12, 6, 20, -37, -10, 6, 8, 10, -16, -43, 9, 65, 26, -24, 5, -18, -3, -29, -9, 32, 16, 24, 52, 61, 7, -21, 9, 21, 9, 41, 
47, 16, -19, 26, 73, 57, 47, 1, -26, -4, 1, 27, -39, -12, 26, -15, 7, -8, 32, 14, -24, -5, 28, 13, 18, 45, 11, 17, -79, 18, 49, -15, -16, -14, -30, -22, 19, 39, 21, 33, -67, -45, 16, 11, -6, 
50, -26, 12, -6, 33, -49, -38, -83, -15, -5, 20, -13, 39, -25, 25, -24, -14, -43, 4, -30, -64, -5, 32, -5, 50, -35, 37, 27, 22, -43, -44, -61, -32, -7, -33, -36, 2, 35, 4, 0, 67, 13, -27, -83, -59, 
-58, -35, -7, -88, -104, -61, 22, 83, -1, -93, -14, -51, -101, -88, -4, -115, -90, -109, 12, -50, -20, -87, -61, -76, -73, -44, -80, -55, -71, -23, -50, -41, 6, -10, -25, -9, -37, -51, -31, -43, 13, -43, -44, -5, -15, 
-13, 46, 33, -7, -57, 89, 4, -43, -25, 5, -50, -52, -71, -4, 11, -43, -48, 7, -8, 38, -93, 1, 22, -29, -23, 6, 23, -62, -35, -42, -42, 18, 21, -37, -94, -75, -41, -18, -29, 12, -35, -49, 1, -17, 30, 
56, -24, 39, -27, -60, -13, -29, -12, 3, -68, 29, 7, -51, -36, 22, -34, 124, 59, 19, -42, -17, -100, -66, -53, -50, -34, -70, -28, 15, 26, 107, 35, -21, 29, 45, -35, -18, -11, 3, 63, 11, 22, -51, 8, -67, 
33, -127, 55, -43, -83, -25, 38, 12, -13, 58, 33, 24, 86, -77, -65, 7, -44, -35, -2, 100, -65, 23, 45, -16, -53, 20, -9, -80, -20, -13, -12, 41, 8, -4, 22, -105, -23, -69, -36, -61, -4, 9, 10, -109, 22, 
93, 57, 36, -23, 22, 41, 22, -33, 60, 4, 38, 22, 25, 88, 6, 40, -37, 64, 33, -94, 38, 91, 8, 39, 28, -4, 50, -69, -74, 31, 26, -26, 53, 11, 127, 59, 53, -68, 60, -24, -57, 44, 68, 18, 59, 
23, -9, 94, 90, 18, 71, -12, -21, 31, 27, -43, 22, 36, 56, 65, -12, -44, -16, -1, 30, -31, -22, -2, 19, -19, 32, -11, -3, -15, 57, -26, -42, -33, 57, -65, 27, 12, 73, -2, -8, 36, 0, -25, -7, 0, 
-24, 1, 45, 46, 47, 32, 52, 23, -47, -14, 8, -21, -5, -3, -34, 6, -1, 21, 4, 76, -90, -39, 30, 2, -65, -14, -44, 39, -24, 29, 47, -10, 49, -19, 9, 18, 21, 4, 24, -28, 63, 32, 5, -17, 59, 
-30, -84, -6, 26, -51, 26, -31, 127, 15, -22, 42, -6, -22, -66, -19, 16, -12, -15, 24, 27, 7, 28, 31, -71, 25, 16, 35, -20, 63, -11, -25, -40, -64, -21, 20, -120, 37, 44, -29, -48, 71, -4, 32, -105, -95, 
25, -1, 50, -11, 36, 3, -33, -1, 2, -25, 48, -29, -59, 11, 10, -73, -38, -67, -21, 1, -3, -69, 113, 23, -28, -17, -9, -41, -70, 22, 17, -5, -6, 8, -11, 13, -25, -33, 31, 20, 35, -2, 5, 60, 8, 
-33, -127, -84, -51, -55, 20, -9, 49, 21, 27, 52, 30, -55, -31, -19, -43, -26, -22, 6, 10, 6, -40, -30, -26, -40, 12, 7, -3, -44, 60, -28, 0, -11, 26, -54, 8, -55, 65, 30, -65, 11, 22, -64, -16, 11, 
17, -4, -17, -31, 10, 2, -43, -26, 4, 41, 22, -49, 5, -2, -19, 21, 37, -21, -41, -36, 30, 3, 26, -24, -37, -44, -1, -17, 33, 26, 20, 9, -7, -38, 55, -17, -53, 31, 18, -18, -27, 55, 2, -41, -37, 
-18, 25, -39, -23, 42, -33, -19, 12, 30, -30, -39, -56, 31, -27, -1, 5, 17, 2, 14, -27, -7, 3, 69, -41, -17, 28, -40, -14, -36, -15, 50, -13, -12, -33, 38, -7, 27, -38, 27, 16, 25, -14, -20, -31, -3, 
18, 7, -30, 87, 16, 49, 44, 52, -47, 22, 15, 25, 47, 49, -15, 32, 31, -42, 45, 127, -57, 47, 61, 13, 12, 42, -31, -16, -28, -9, -58, 49, -20, -30, -5, -12, -12, -10, -5, -46, -63, -55, 1, 50, -64, 
-29, -29, -66, -39, -110, 32, 32, -4, -7, -17, 78, -28, -5, -27, 21, 9, -5, -6, 54, 4, -44, 5, 6, -72, 7, -29, -77, 33, -31, 10, 27, 60, 2, -21, -14, 5, 5, -38, -28, -60, -90, 7, -42, 81, 25, 
-73, 38, -14, -52, -31, 33, -7, -66, -40, -18, 24, -41, -8, 27, -23, -107, -2, 26, -61, -103, 57, -54, -55, 48, 85, 61, 6, -76, -21, 49, -27, -34, -37, 10, 19, 25, 16, -59, -17, -12, -6, -32, -61, -64, 57, 
-5, -35, 30, -2, -20, -32, -61, 40, -42, -41, 13, 0, -10, 9, -10, 24, -18, 5, -25, -13, -14, 0, -20, 86, 35, 29, 31, 39, -46, 42, 36, -14, 44, 16, -27, 39, 6, 23, 1, -18, -28, 13, -5, 97, 33, 
17, 6, 38, -47, -13, -11, -34, -11, -9, 23, 101, -21, -46, 11, -6, -81, 31, -46, -40, 4, 11, -31, 112, -12, -65, 25, -16, 12, 30, -31, 30, -89, -50, 30, 83, 27, 12, 10, 71, -4, -36, 9, 27, -40, 64, 
-48, -15, -29, 2, 12, -70, 20, -25, 3, -44, 9, 20, -19, -42, -55, -10, -44, -23, -31, -27, -1, -37, -85, -41, -81, 84, 99, -11, -94, -8, -75, -66, -59, -29, 23, -27, -41, 62, 54, -28, 18, -54, 4, 18, 35, 
-47, 31, -56, -31, 21, -12, -21, -28, -14, 62, 59, -9, 3, 46, -57, -51, -115, -73, -30, -50, -26, 28, 26, -92, -18, 7, -42, -75, -103, -127, -44, -6, 21, 7, 0, -5, -7, 41, 17, -1, 23, 22, 39, 37, 53, 
3, 34, 65, -15, 25, -79, 33, 7, 17, -8, -3, -12, -7, 54, -22, -29, 1, -42, -29, -13, 5, -26, 45, 2, 7, 4, -3, -2, -35, -10, 38, -36, -56, 4, 104, -84, 53, -43, -33, -31, -47, -19, 72, 5, -51, 
82, 2, -5, 9, 77, 36, 14, -89, -9, 11, 49, 50, 40, 4, 37, 14, 76, 17, -12, 0, 7, -19, 106, 3, -8, 28, 68, -46, 85, 59, 32, 53, -17, 29, 33, -1, 63, 21, 41, -8, 16, -27, 6, 22, 3, 
48, 43, 31, 7, -2, -64, 22, 0, 61, 47, 23, 15, -11, 50, 30, -26, -28, 27, -59, 15, 9, 2, -28, 18, -37, 37, 15, -23, -89, -54, -30, -54, -57, -21, 59, 25, -27, -32, 72, -127, -54, -30, -23, 17, -23, 
-63, 72, -82, -15, 12, 17, -5, 1, 71, 71, -23, -81, -85, -8, -61, 8, -13, 2, -4, 85, -3, 22, -48, -12, 18, 7, -13, 44, 18, 17, -63, -74, 16, -1, -20, -53, 16, 123, -33, -19, -38, 50, -25, -25, -6, 
-22, 40, -40, -43, 127, -46, -10, -32, -14, -76, -6, -98, 46, 67, 51, -33, 82, -50, 4, -81, 16, -19, -25, 4, 53, -22, -29, -17, -16, 43, -19, 40, 9, 17, -41, 78, -22, -11, 7, 71, -3, 76, -22, 64, 65, 
89, -15, -32, 33, -38, -7, -12, 46, 7, -19, -61, -27, -48, -29, -50, 19, 68, -3, -7, 53, 29, 35, -38, -42, 6, 24, -8, 102, 80, 1, 52, -8, 17, 73, 3, -35, 59, 5, 4, 24, 32, 20, 28, -15, -2, 
9, 56, 13, 0, -86, 119, -4, 2, -44, 16, -23, 9, -55, -10, 15, 
};

const int32_t g_Weight7[] = {
46, 281, 76, -80, 102, -308, -329, -58, -155, 111, -373, -46, 123, -6, 19, 130, -92, -89, -143, 231, 
};

const int8_t g_Weight8[] = {
-32, 113, 23, -12, -35, 32, -93, 60, 40, 90, -43, -127, 65, 114, -38, -58, 41, -39, -95, 127, 11, 69, -25, -68, -37, -68, -33, -127, -25, -46, -16, -12, 95, -11, 30, 127, 31, 93, 52, 118, 99, 119, -40, 45, 127, 
42, 119, -37, -67, -36, 33, -43, 105, 50, -13, -127, 47, 56, -60, 90, 8, -127, -27, -41, -120, 28, 127, 65, 10, -36, 98, 51, 99, 66, 28, -52, 101, 94, 73, -58, -46, -6, -111, -105, 75, -125, -116, -59, 0, 59, 
15, -20, -42, -5, 127, -127, -61, 19, 60, -76, -63, -127, -73, 37, 66, 43, 17, 46, 31, 37, -47, 20, -58, 13, -106, 127, 77, -63, 91, -25, 23, 127, -70, -41, 104, -49, 11, 108, 114, 34, -82, -66, 115, -86, 0, 
4, 123, -127, 76, 55, -74, 31, 7, -16, -6, 52, 33, -25, 94, -73, 48, 10, 13, -17, -14, -57, -127, 86, 83, 127, 87, -63, 31, 18, 51, -82, 6, 127, -102, -8, -127, 60, -9, -16, -4, -88, -47, 7, -50, -45, 
97, -30, 16, 33, 57, 61, -3, 56, 95, 127, 41, -99, -86, -67, 124, 19, -46, 69, -14, -127, 
};

const int32_t g_Weight9[] = {
45, 72, -10, -74, 10, -24, -7, -8, 96, -18, 
};

